{
  "cvModule": "objdetect",
  "owner": "HOGDescriptor",
  "fnName": "setSVMDetector",
  "hasAsync": false,
  "signatures": [
    {
      "requiredArgs": [
        {
          "type": "number",
          "name": "detector",
          "arrayDepth": 1
        }
      ],
      "optionalArgs": [],
      "returnValues": []
    }
  ]
}